SVM-light Version V6.02
0 # kernel type
3 # kernel parameter -d 
1 # kernel parameter -g 
1 # kernel parameter -s 
1 # kernel parameter -r 
empty# kernel parameter -u 
10 # highest feature index 
20 # number of training documents 
13 # number of support vectors plus 1 
0.90764181 # threshold b, each following line is a SV (starting with alpha*y)
-5.2955284601515248965597493224777 1:0.034363426 2:0.060555555 3:0.04568287 4:0.103125 5:0.20311922 6:0.16262731 7:0.074733794 8:0.076753475 9:0.073715277 10:0.16532408 #
5.2955284601515248965597493224777 1:0.020590277 2:0.033564813 3:0.018420139 4:0.043559026 5:0.13266204 6:0.12545718 7:0.035561342 8:0.049762733 9:0.42454863 10:0.11587384 #
-5.2955284601515248965597493224777 1:0.03320602 2:0.054160878 3:0.036464121 4:0.06101273 5:0.10402778 6:0.11133102 7:0.055023149 8:0.069519676 9:0.31740162 10:0.15785301 #
5.2955284601515248965597493224777 1:0.042204861 2:0.072135419 3:0.02597801 4:0.046157409 5:0.10909722 6:0.098182872 7:0.032957178 8:0.081336804 9:0.2378588 10:0.25409144 #
-5.2955284601515248965597493224777 1:0.074363425 2:0.082644679 3:0.032806713 4:0.0315625 5:0.040630788 6:0.052638888 7:0.038987268 8:0.096568286 9:0.25979745 10:0.28999999 #
5.2955284601515248965597493224777 1:0.033396989 2:0.05211227 3:0.021452546 4:0.040850695 5:0.16171296 6:0.13974537 7:0.037413195 8:0.06175347 9:0.27714121 10:0.1744213 #
-5.2955284601515248965597493224777 1:0.050121527 2:0.066435188 3:0.035619214 4:0.071140043 5:0.1214757 6:0.13587384 7:0.061545137 8:0.084664352 9:0.16321181 10:0.20991319 #
5.2955284601515248965597493224777 1:0.03140625 2:0.047077548 3:0.025046296 4:0.047609955 5:0.14355324 6:0.10939815 7:0.038379628 8:0.063524306 9:0.33157408 10:0.16243055 #
-5.2955284601515248965597493224777 1:0.049056713 2:0.064479165 3:0.046475694 4:0.084461808 5:0.14376736 6:0.14451967 7:0.068576388 8:0.084565975 9:0.11123264 10:0.20286459 #
5.2955284601515248965597493224777 1:0.026388889 2:0.035769675 3:0.018663194 4:0.032887731 5:0.094421297 6:0.13414352 7:0.027326388 8:0.046591435 9:0.44134259 10:0.14246528 #
-1.4758409277538864223799919273006 1:0.028402777 2:0.046967592 3:0.042702544 4:0.1104456 5:0.25079861 6:0.19365162 7:0.069519676 8:0.062870368 9:0.06370949 10:0.13093172 #
1.475840927753885978290782077238 1:0.025185185 2:0.033258103 3:0.017314814 4:0.036244214 5:0.14339699 6:0.099895835 7:0.029386574 8:0.045688659 9:0.45336807 10:0.11626157 #
